26 
48
-0.0005583050407888167
0.0005579283338482771
0.2616071428571434
0.05178571428571399
0.19821428571428637
0.011607142857143378
-0.05178571428571353
-0.008035714285714673
-0.19821428571428595
-0.26160714285714315
0.26071428571428623
0.05267857142857127
0.010714285714286276
0.258035714285714
0.05178571428571427
0.0080357142857139
0.19732142857142898
-0.010714285714286075
0.198214285714286
-0.011607142857143163
-0.052678571428571075
-0.26071428571428634
-0.051785714285714046
-0.25803571428571515
-0.19732142857142912
-0.19821428571428615
-0.059718234269445544
-0.039760958456578406
-0.12585640921271016
0.1463637636944005
0.17437080096509383
-0.1713633655304608
0.02580624121490919
0.05555485777066599
-0.008357246638160827
0.20175152321898182
0.19952210798101133
0.025255426530740997
0.01823380395237611
0.18548357309102922
0.2180540369298847
-0.008413168596924439
0.993350156043469
0.8681106458371313
0.7813576221622827
0.9787576747141179
1.0114437880568286
0.8682011526285349
0.7952327492584949
0.9499582974701825
-0.021685225296863116
-0.13786332577578878
-0.02326352111133074
-0.20736548139933925
0.016216929431080766
-0.17187074372968247 
-0.04560085781723829 
-0.19113363604787037 
-0.8274927467042654 
-0.9866555608912744
-0.9659499691671459 
-0.8624708135273713 
-0.8568154320104108 
-0.9535961750180284 
-0.9797968276431773 
-0.8625958573115858
0.03468022807817996 
-0.010105538306081834 
-0.178112999572074
0.17508931773794317 
0.12446520742229945 
-0.1449495396197763
0.024057998999970746 
-0.030522683162327768 