98
192
0.125434563479975
0.07734996879948952
0.04779755531324811
1.7999275559752803E-05
9.747860020412883E-05
-0.04748477057221053
-0.00024571893112716666
-0.07754163427833603
-0.12543714222307453
0.12527158620449982
0.07728255462178751
0.047745157143789324
-1.8006561229584975E-05
0.00024589413559753393
-0.04755326735722907
-9.783486469931318E-05
-0.07759559486188392
-0.12526904429208294
0.2529066119691122
0.13793677606177598
0.23693774131274137
0.1901025579150581
0.05989744208494201
0.013062258687258618
0.0029066119691121134
-0.013062258687258514
-0.059897442084941944
0.11206322393822415
-0.001999276061776238
-0.1120632239382239
-0.19010255791505806
-0.13793677606177587
-0.23693774131274128
-0.25290661196911224
0.1380538127413128
0.05987934362934358
0.2526025579150579
0.13800434362934363
0.05989261583011582
0.2525627413127413
0.01306346525096522
0.002562741312741391
0.01300434362934359
0.0026025579150579844
0.13806346525096527
0.05987934362934358
0.25199927606177597
0.13806225868725863
0.05989744208494209
0.25268822393822404
0.013053812741312697
0.0026882239382240774
0.012936776061776062
0.0019992760617759636
0.2369365347490349
0.1901206563706565
0.19010738416988435
0.23699565637065656
0.11194618725868725
-0.0026882239382239326
-0.002602557915057993
0.11199565637065649
0.2369461872586874
0.19012065637065645
0.190102557915058
0.23706322393822396
0.11193653474903481
-0.002562741312741229
-0.0029066119691120718
0.11193774131274134
-0.013063465250965153
-0.059879343629343516
-0.05989261583011577
-0.013004343629343492
-0.13805381274131268
-0.13800434362934355
-0.2526025579150581
-0.2525627413127416
-0.013053812741312615
-0.059879343629343516
-0.05989744208494205
-0.012936776061775996
-0.13806346525096505
-0.13806225868725866
-0.2519992760617761
-0.25268822393822427
-0.1119461872586874
-0.11199565637065653
-0.19012065637065645
-0.19010738416988435
-0.23693653474903487
-0.23699565637065656
-0.11193653474903485
-0.11193774131274153
-0.19012065637065645
-0.19010255791505806
-0.23694618725868727
-0.2370632239382242
-0.029580769943236933
0.07042525386301199
-0.06824270446372693
-0.015054525654933714
-0.008940100664542174
0.014405500832528064
-0.0008797288592461552
0.0022467071095464033
-0.05213770714979632
0.019270375698065216
-0.05133801577636006
-0.0065706921106262715
-0.01746199334344215
0.06413745286318781
0.05197838918836652
-0.0062107180548537574
0.049289630785055424
-0.02059558604160869
0.07978808668918654
0.0034993275123811787
0.01739774220978762
-0.0792128965781452
-0.05095674939891438
0.002565840245467887
0.0025569778659496538
-0.012054637977839837
0.0074485284690033494
-0.001600095048187684
0.06697483280682257
-0.06987582971616058
0.02962901064693961
0.014968271826359993
-0.006379454567840341
0.012866150038924606
-0.0023984794511003856
-0.0212327231006407
0.10255167441773065
0.0021346527867950648
0.09901874635056085
0.009734848361719482
0.09974914400682344
-0.020283106219102415
0.1019275383293967
0.010089365646315329
0.018821491721971267
0.029367143319698558
-0.002099766410542615
-0.023816484762064383
-0.002307691669132662
0.025531794906892828
0.021566204049993553
-0.021830230384090522
0.0991938714116104
-0.021144671297213206
0.093827650117736
0.013846482917106016
0.10294470165431566
0.0010491793812226554
0.10891571227394636
0.009827523270112395
-0.002373327424644895
0.01029714119728875
-0.0067402794247320855
-0.020979014688468568
0.9782580127449704
0.9747967443670501
0.9982270608948776
1.0038146197411713
0.9319320525384146
0.9304323696674209
1.0027211015523603
0.9834202739160272
0.9984295669037193
0.89109094383062
0.8970216195912684
0.9901653910278954
1.0067553922621812
1.0025546806134034
0.9896633782979833
1.0205249278453359
0.9836659118046133
0.9984089272935464
1.0019900486154856
1.002923062536661
0.9304349076074995
0.9312720391567105
0.9818470515543118
0.988395280506185
1.0198158000644366
0.8980436009236601
0.9002150441373733
0.9898793310170845
1.0022819163619632
0.9813951186683935
0.9705836636609145
1.023386911495315
-0.029959610479359442
-0.023058154092076608
-0.0018463799091060623
0.004469220595179386
-0.07034690844135309
-0.07359581135535961
0.0020005564072893382
-0.012864878199862834
0.006516034268444859
0.0025574148397347063
-0.012904314683769142
0.020775028559204545
-0.0026529466394318284
-0.10252920796641951
-0.09902345627834637
-0.009773718647527402
-0.012503672785914117
-0.0015786302148126786
0.0022206427178743477
0.002097780280859697
-0.07427237467784241
-0.08667686069910513
-0.017669215928418233
-0.007988546773047655
0.002482813517353073
-0.02114272226404752
-0.025532296971016426
0.021379746762736046
0.020666591929453356
-0.09920271865147809
-0.09382766968940989
-0.013881695200149634
-0.913285750010393
-0.9817726175329274
-0.9256162109082341
-0.992091477083846
-0.9875628912387385
-1.002256225882761
-0.9986279359499659
-1.0016046824203881
-0.9751962189052883
-0.9782451235887502
-0.9983801725576548
-1.0033846081858693
-1.002268407245731
-0.9319338230286023
-0.930433850186721
-0.9833767636668319
-0.9262937469937335
-1.001490840162191
-0.9295478993875403
-0.9872040867920266
-0.9700549801086731
-0.9983561283873904
-0.9771797372327229
-1.004010860822744
-0.9985400472860031
-0.9836129202368806
-1.002104909844188
-1.0024863367395096
-0.9813505516516793
-0.930431789117053
-0.931303142944599
-0.9883487753223205
0.015126079602688646
0.07203090754552663
-0.06871924092526163
-0.007446431367592073
-0.010999802257234709
0.012168953275043977
-0.0017404327310547299
0.0009765474628094784
-0.050479742127328905
0.020449303993176737
-0.07983857520514957
-0.003203848615768924
-0.01724773672092092
0.07924756730363347
0.052126827330121424
-0.0028562270604657555
0.05168634363166249
-0.01957134889115678
0.051601067221862515
0.006450094480629074
0.017757643142252682
-0.06437883779184267
-0.05151051822286624
0.006324923880597301
6.449345803557566E-05
-0.010674839603294019
0.008646487652599866
-0.0016231635338259
0.0681572500850804
-0.07075047208535878
-0.015174496492869003
0.007532936429413942