98
192
0.036500548036186936
-0.016402500577330476
0.005171041529906264
-0.029637853092920566
-0.002912263324458912
-0.019624581110622197
-0.10250716927133645
-0.08625159773357988
-0.046237481741619464
0.036584893585261805
-0.016147402649078133
0.00535873616307195
-0.029744574809526036
-0.002852769638811458
-0.019795957301485874
-0.10080719602994158
-0.08564016957980393
-0.04590917043320255
0.1293599179536681
0.049502733815852594
0.10540661196911219
0.035153836872587135
0.013659682268902507
0.0009198561627398218
0
0
0
-0.08190516409266382
-0.25274567541816934
-0.23174726618414754
-0.17384031773109743
0
-0.09283014383726014
-0.00020662403474903945
0.04981180310658964
0.013685355097406426
0.128903836872587
0.04971726870744502
0.013669461872586853
0.12884411196911205
0.001047297297297283
0
0.0010392467365703637
0
0.049797900579150525
0.013633660346608947
0.12799891409266398
0.049923531868148206
0.013686480858510555
0.12903233590733604
0.0010189160053794737
0
0.0011524302768114608
0
0.10540480212355231
0.03518098455598468
0.03516107625482642
0.10549348455598472
-0.08208071911196896
-0.25377700797951414
-0.25369010054963026
-0.08200651544401527
0.1054192808880311
0.03518098455598473
0.03515383687258693
0.10559483590733602
-0.08209519787644763
-0.2536092823507736
-0.25415329391891883
-0.082093388030888
0
0
0
0
0
0
-0.0002137363229565946
-0.00023482961833831695
0
0
0
0
0
0
-0.00025323867449483783
-0.0002553279278217427
-0.23143819689341052
-0.2315327312925551
-0.17381464490259368
-0.17383053812741317
-0.09270270270270273
-0.09271075326342965
-0.23145209942084968
-0.23132646813185223
-0.17386633965339107
-0.17381351914148943
-0.09273108399462057
-0.09259756972318862
-0.05606287423314201
0.0582154694370224
-0.08409327950426788
-0.0014732440871628148
0.014735405190599694
0.0358456362934608
0.017064380360539796
-0.024744295726383144
-0.04813704939497595
-0.017828758663041844
-0.026481636005847187
0.029733175317208243
0.022907358113834573
0.010547254642741593
-0.02462347462998273
-0.022300909438800833
0.0175868341746166
-0.037621057619886995
0.06785035092071247
0.03948966595171162
0.054922767589593184
-0.12342608860377115
-0.09210606136280038
-0.01699675112144594
-0.029178584047577834
-0.013513798521288317
-0.004045696183229644
0.06946625840615485
-0.021566124768989288
-0.050628920382912265
-0.11616137722765715
-0.02919068117235078
-0.0003027646484024857
0.025782735906415832
0.0025619190035943884
-0.03825337832620307
0.15143444963614205
-0.011018560740796572
0.14482917741909976
0.020925068819367034
0.004207326089338386
0.007215007384164521
0.004792224799961965
-0.0069244781707738625
0.010560948812252278
0.0012181550906406166
-0.005542796792116792
0.004255366774126623
0.0023609055960461746
0.04397747112208552
0.02682397003911552
-0.03856548504510138
0.14472782930023553
-0.038761044091704486
0.13581532037332955
0.027260611496507308
0.004562950077574972
0.019947548996384575
0.011103458412817357
-0.008310798502123257
-0.00603689377265556
-0.007008443881054231
-0.010938128959488303
0.0067534976091277
0.7092167424685974
0.6105897747224713
0.6253663864928737
0.667449911817436
0.6431341640541699
0.6414577115854814
0.6681980328036864
0.7095377322372938
0.45802669306662763
-0.03665669427695528
-0.06011689528859915
0.1929996435109898
0.4936567451776279
0.49212924752545195
0.19957110758133007
0.46220102232128457
0.7098009689328506
0.6255018972894544
0.627388267004327
0.6684057036590032
0.6416355781704718
0.6458794565566639
0.6492177202005059
0.7146854784765919
0.4609898771182258
-0.05831683325218415
-0.05601680286084926
0.19967511949299746
0.4915510446080087
0.47692949659518913
0.18787744972349804
0.4622370013188172
0.018064592003285713
0.13032171798656902
0.12206954471166624
0.08593361197266125
0.003821715238447008
0.003492601521142562
0.08591693164908236
0.01617030341178735
0.2606054866888637
0.2616895074704128
0.5285482239968641
0.32018774255818455
0.33213725100461206
0.6889182881978313
0.6606809867971555
0.5264022019255205
0.016234494517801134
0.12207353832326615
0.1194857378993139
0.08591073402513955
0.0035812881267350614
0.003974782619037424
0.09821371948556121
0.014612521658788864
0.26189840030165146
0.278302587114557
0.5718562718358169
0.31403451050180553
0.3201856060505733
0.6606107777895283
0.647713139274012
0.5288870859502467
-1.250398163254191
-0.9348308428186304
-1.2952390073169586
-1.2573513450187297
-1.2429437660639833
-0.8893981689414168
-0.8812475974218471
-0.9925560851673628
-0.56842024976179
-0.19184730106279435
-0.6161521842851647
-0.5178966778584743
-0.5079976554285363
-0.10186102845381803
-0.08934351173420974
-0.24314573117617644
-1.2962979294596246
-0.9930041646713972
-1.3012214058787517
-1.2427637854141431
-1.2062318515760084
-0.8815079810814285
-0.8408443509919062
-0.9978458219464876
-0.6167929002671645
-0.24355684042172399
-0.6244184010878363
-0.5086867274200104
-0.4763625294268183
-0.08957871980075331
-0.0599094411690445
-0.24771592677692947
0.001927385970073634
0.046286226454072835
-0.08910679487020057
0.012748590981888398
0.014154876749568715
0.03349739913067302
0.012876221409114963
-0.021295157705021675
-0.05315319231276218
-0.01767276170531744
-0.03019653750920968
0.0324921613451143
0.018108108385210327
0.017112589180590446
-0.010708640208195794
-0.02304299324193392
-0.008543055467519987
-0.02974625422742132
-0.016022179250809458
0.057364225273741666
0.06654430617814683
-0.15257805052072124
-0.1404777381577167
0.004946040252367988
-0.03457273577460046
-0.014736665516844247
-0.0006932842344044271
0.0738488798378075
0.009955190477105967
-0.09963367607312308
-0.12504121817445735
-0.026219761337268273