26 
48
-0.01957792350330634
-0.014171609834988897
0.14241071428571506
0.005803571428571311
0.047321428571429694
0
0
-0.26004464285714346
-0.18169642857142873
-0.001116071428571272
0.1410714285714294
0.00825892857142844
0
0.13705357142857083
0.009375000000000003
0
0.04598214285714338
-0.2638392857142864
0.04732142857142896
-0.2662946428571435
0
-0.0022321428571428284
0
-0.002008928571428731
-0.1792410714285716
-0.17812500000000042
-0.1492182369697947
0.09892824422793571
-0.11277633954668113
0.08830205631520674
0.12963533640866445
-0.15817404336309393
-0.12366065179940272
-0.18957850566075404
0.06709899274029586
0.29384709502528406
0.013665200813894789
-0.05813217616207139
0.10254694076611524
0.2645464602116996
0.03382628261251346
-0.08099147669207239
0.7081622095890673
0.5311331887910524
-0.08406506768461935
0.3563576917570833
0.7050169153706527
0.5381820800217736
-0.12529442135376234
0.34787828480016203
0.070030087601342
0.018323604313877324
0.3367960271339671
0.6296522129811765
0.05486239843761043
0.006831592825183305
0.409749921685145
0.5514338564255472
-1.0254061829470749
-1.0012943476791205
-0.40426378262296103
-0.19520096297632938
-1.1066991336009242
-0.9162468664904769
-0.506477539967407
-0.11771879177633242
-0.05097281900007125
0.16040874158002477
-0.11080862543154733
0.12595081553835455
-0.0256671654465637
-0.23075997792594158
-0.08392082026435069
-0.22666935968312002